digraph Tree {
node [shape=box, style="filled, rounded", color="black", fontname="helvetica"] ;
edge [fontname="helvetica"] ;
0 [label="temperature <= 32.5\ngini = 0.458\nsamples = 189408\nvalue = [45958, 12452, 130998]\nclass = Uninjured", fillcolor="#b48af0"] ;
1 [label="temperature <= 21.5\ngini = 0.435\nsamples = 31593\nvalue = [7228, 1807, 22558]\nclass = Uninjured", fillcolor="#b082ef"] ;
0 -> 1 [labeldistance=2.5, labelangle=45, headlabel="True"] ;
2 [label="temperature <= -34.5\ngini = 0.424\nsamples = 14353\nvalue = [3201, 764, 10388]\nclass = Uninjured", fillcolor="#ae7fee"] ;
1 -> 2 ;
3 [label="gini = 0.0\nsamples = 8\nvalue = [0, 0, 8]\nclass = Uninjured", fillcolor="#8139e5"] ;
2 -> 3 ;
4 [label="temperature <= -29.0\ngini = 0.424\nsamples = 14345\nvalue = [3201, 764, 10380]\nclass = Uninjured", fillcolor="#ae7fee"] ;
2 -> 4 ;
5 [label="temperature <= -33.0\ngini = 0.54\nsamples = 10\nvalue = [6, 1, 3]\nclass = Injured", fillcolor="#f4c9aa"] ;
4 -> 5 ;
6 [label="gini = 0.0\nsamples = 1\nvalue = [1, 0, 0]\nclass = Injured", fillcolor="#e58139"] ;
5 -> 6 ;
7 [label="temperature <= -31.5\ngini = 0.568\nsamples = 9\nvalue = [5, 1, 3]\nclass = Injured", fillcolor="#f6d5bd"] ;
5 -> 7 ;
8 [label="gini = 0.0\nsamples = 1\nvalue = [0, 0, 1]\nclass = Uninjured", fillcolor="#8139e5"] ;
7 -> 8 ;
9 [label="temperature <= -30.5\ngini = 0.531\nsamples = 8\nvalue = [5, 1, 2]\nclass = Injured", fillcolor="#f2c09c"] ;
7 -> 9 ;
10 [label="gini = 0.0\nsamples = 1\nvalue = [1, 0, 0]\nclass = Injured", fillcolor="#e58139"] ;
9 -> 10 ;
11 [label="gini = 0.571\nsamples = 7\nvalue = [4, 1, 2]\nclass = Injured", fillcolor="#f5cdb0"] ;
9 -> 11 ;
12 [label="temperature <= -15.5\ngini = 0.423\nsamples = 14335\nvalue = [3195, 763, 10377]\nclass = Uninjured", fillcolor="#ae7fee"] ;
4 -> 12 ;
13 [label="temperature <= -16.5\ngini = 0.349\nsamples = 124\nvalue = [19, 7, 98]\nclass = Uninjured", fillcolor="#a06aeb"] ;
12 -> 13 ;
14 [label="temperature <= -27.5\ngini = 0.37\nsamples = 115\nvalue = [19, 7, 89]\nclass = Uninjured", fillcolor="#a36fec"] ;
13 -> 14 ;
15 [label="gini = 0.5\nsamples = 2\nvalue = [0, 1, 1]\nclass = Killed", fillcolor="#ffffff"] ;
14 -> 15 ;
16 [label="temperature <= -25.5\ngini = 0.362\nsamples = 113\nvalue = [19, 6, 88]\nclass = Uninjured", fillcolor="#a36eec"] ;
14 -> 16 ;
17 [label="temperature <= -26.5\ngini = 0.48\nsamples = 5\nvalue = [2, 0, 3]\nclass = Uninjured", fillcolor="#d5bdf6"] ;
16 -> 17 ;
18 [label="gini = 0.5\nsamples = 2\nvalue = [1, 0, 1]\nclass = Injured", fillcolor="#ffffff"] ;
17 -> 18 ;
19 [label="gini = 0.444\nsamples = 3\nvalue = [1, 0, 2]\nclass = Uninjured", fillcolor="#c09cf2"] ;
17 -> 19 ;
20 [label="temperature <= -22.5\ngini = 0.353\nsamples = 108\nvalue = [17, 6, 85]\nclass = Uninjured", fillcolor="#a16bec"] ;
16 -> 20 ;
21 [label="temperature <= -24.5\ngini = 0.185\nsamples = 20\nvalue = [1, 1, 18]\nclass = Uninjured", fillcolor="#8e4ee8"] ;
20 -> 21 ;
22 [label="gini = 0.292\nsamples = 12\nvalue = [1, 1, 10]\nclass = Uninjured", fillcolor="#985dea"] ;
21 -> 22 ;
23 [label="gini = 0.0\nsamples = 8\nvalue = [0, 0, 8]\nclass = Uninjured", fillcolor="#8139e5"] ;
21 -> 23 ;
24 [label="temperature <= -20.5\ngini = 0.384\nsamples = 88\nvalue = [16, 5, 67]\nclass = Uninjured", fillcolor="#a673ed"] ;
20 -> 24 ;
25 [label="temperature <= -21.5\ngini = 0.594\nsamples = 8\nvalue = [3, 1, 4]\nclass = Uninjured", fillcolor="#e6d7fa"] ;
24 -> 25 ;
26 [label="gini = 0.444\nsamples = 3\nvalue = [1, 0, 2]\nclass = Uninjured", fillcolor="#c09cf2"] ;
25 -> 26 ;
27 [label="gini = 0.64\nsamples = 5\nvalue = [2, 1, 2]\nclass = Injured", fillcolor="#ffffff"] ;
25 -> 27 ;
28 [label="temperature <= -18.5\ngini = 0.351\nsamples = 80\nvalue = [13, 4, 63]\nclass = Uninjured", fillcolor="#a16bec"] ;
24 -> 28 ;
29 [label="temperature <= -19.5\ngini = 0.292\nsamples = 52\nvalue = [8, 1, 43]\nclass = Uninjured", fillcolor="#9b62ea"] ;
28 -> 29 ;
30 [label="gini = 0.289\nsamples = 47\nvalue = [7, 1, 39]\nclass = Uninjured", fillcolor="#9a61ea"] ;
29 -> 30 ;
31 [label="gini = 0.32\nsamples = 5\nvalue = [1, 0, 4]\nclass = Uninjured", fillcolor="#a06aec"] ;
29 -> 31 ;
32 [label="temperature <= -17.5\ngini = 0.446\nsamples = 28\nvalue = [5, 3, 20]\nclass = Uninjured", fillcolor="#ad7eee"] ;
28 -> 32 ;
33 [label="gini = 0.52\nsamples = 14\nvalue = [3, 2, 9]\nclass = Uninjured", fillcolor="#ba93f1"] ;
32 -> 33 ;
34 [label="gini = 0.357\nsamples = 14\nvalue = [2, 1, 11]\nclass = Uninjured", fillcolor="#a06bec"] ;
32 -> 34 ;
35 [label="gini = 0.0\nsamples = 9\nvalue = [0, 0, 9]\nclass = Uninjured", fillcolor="#8139e5"] ;
13 -> 35 ;
36 [label="temperature <= 12.5\ngini = 0.424\nsamples = 14211\nvalue = [3176, 756, 10279]\nclass = Uninjured", fillcolor="#ae80ee"] ;
12 -> 36 ;
37 [label="temperature <= -4.5\ngini = 0.417\nsamples = 6610\nvalue = [1449, 340, 4821]\nclass = Uninjured", fillcolor="#ad7eee"] ;
36 -> 37 ;
38 [label="temperature <= -6.5\ngini = 0.429\nsamples = 507\nvalue = [127, 19, 361]\nclass = Uninjured", fillcolor="#b185ef"] ;
37 -> 38 ;
39 [label="temperature <= -12.5\ngini = 0.389\nsamples = 333\nvalue = [75, 9, 249]\nclass = Uninjured", fillcolor="#aa79ed"] ;
38 -> 39 ;
40 [label="temperature <= -13.5\ngini = 0.495\nsamples = 62\nvalue = [18, 4, 40]\nclass = Uninjured", fillcolor="#c09cf2"] ;
39 -> 40 ;
41 [label="temperature <= -14.5\ngini = 0.497\nsamples = 54\nvalue = [15, 4, 35]\nclass = Uninjured", fillcolor="#be99f2"] ;
40 -> 41 ;
42 [label="gini = 0.491\nsamples = 46\nvalue = [13, 3, 30]\nclass = Uninjured", fillcolor="#be99f2"] ;
41 -> 42 ;
43 [label="gini = 0.531\nsamples = 8\nvalue = [2, 1, 5]\nclass = Uninjured", fillcolor="#c09cf2"] ;
41 -> 43 ;
44 [label="gini = 0.469\nsamples = 8\nvalue = [3, 0, 5]\nclass = Uninjured", fillcolor="#cdb0f5"] ;
40 -> 44 ;
45 [label="temperature <= -10.5\ngini = 0.361\nsamples = 271\nvalue = [57, 5, 209]\nclass = Uninjured", fillcolor="#a672ed"] ;
39 -> 45 ;
46 [label="temperature <= -11.5\ngini = 0.264\nsamples = 46\nvalue = [6, 1, 39]\nclass = Uninjured", fillcolor="#975cea"] ;
45 -> 46 ;
47 [label="gini = 0.316\nsamples = 37\nvalue = [6, 1, 30]\nclass = Uninjured", fillcolor="#9d66eb"] ;
46 -> 47 ;
48 [label="gini = 0.0\nsamples = 9\nvalue = [0, 0, 9]\nclass = Uninjured", fillcolor="#8139e5"] ;
46 -> 48 ;
49 [label="temperature <= -8.5\ngini = 0.377\nsamples = 225\nvalue = [51, 4, 170]\nclass = Uninjured", fillcolor="#a978ed"] ;
45 -> 49 ;
50 [label="temperature <= -9.5\ngini = 0.386\nsamples = 149\nvalue = [36, 2, 111]\nclass = Uninjured", fillcolor="#ab7cee"] ;
49 -> 50 ;
51 [label="gini = 0.379\nsamples = 136\nvalue = [33, 1, 102]\nclass = Uninjured", fillcolor="#ab7aee"] ;
50 -> 51 ;
52 [label="gini = 0.462\nsamples = 13\nvalue = [3, 1, 9]\nclass = Uninjured", fillcolor="#b388ef"] ;
50 -> 52 ;
53 [label="temperature <= -7.5\ngini = 0.358\nsamples = 76\nvalue = [15, 2, 59]\nclass = Uninjured", fillcolor="#a470ec"] ;
49 -> 53 ;
54 [label="gini = 0.358\nsamples = 50\nvalue = [9, 2, 39]\nclass = Uninjured", fillcolor="#a36eec"] ;
53 -> 54 ;
55 [label="gini = 0.355\nsamples = 26\nvalue = [6, 0, 20]\nclass = Uninjured", fillcolor="#a774ed"] ;
53 -> 55 ;
56 [label="temperature <= -5.5\ngini = 0.493\nsamples = 174\nvalue = [52, 10, 112]\nclass = Uninjured", fillcolor="#c19ef2"] ;
38 -> 56 ;
57 [label="gini = 0.533\nsamples = 33\nvalue = [12, 2, 19]\nclass = Uninjured", fillcolor="#d5bdf6"] ;
56 -> 57 ;
58 [label="gini = 0.481\nsamples = 141\nvalue = [40, 8, 93]\nclass = Uninjured", fillcolor="#bd97f1"] ;
56 -> 58 ;
59 [label="temperature <= 4.5\ngini = 0.416\nsamples = 6103\nvalue = [1322, 321, 4460]\nclass = Uninjured", fillcolor="#ac7dee"] ;
37 -> 59 ;
60 [label="temperature <= 0.5\ngini = 0.414\nsamples = 2208\nvalue = [453, 132, 1623]\nclass = Uninjured", fillcolor="#ab7bee"] ;
59 -> 60 ;
61 [label="temperature <= -1.5\ngini = 0.422\nsamples = 1525\nvalue = [321, 94, 1110]\nclass = Uninjured", fillcolor="#ac7dee"] ;
60 -> 61 ;
62 [label="temperature <= -2.5\ngini = 0.429\nsamples = 191\nvalue = [35, 17, 139]\nclass = Uninjured", fillcolor="#ab7bee"] ;
61 -> 62 ;
63 [label="temperature <= -3.5\ngini = 0.411\nsamples = 109\nvalue = [19, 9, 81]\nclass = Uninjured", fillcolor="#a877ed"] ;
62 -> 63 ;
64 [label="gini = 0.408\nsamples = 62\nvalue = [12, 4, 46]\nclass = Uninjured", fillcolor="#a978ed"] ;
63 -> 64 ;
65 [label="gini = 0.412\nsamples = 47\nvalue = [7, 5, 35]\nclass = Uninjured", fillcolor="#a774ed"] ;
63 -> 65 ;
66 [label="gini = 0.452\nsamples = 82\nvalue = [16, 8, 58]\nclass = Uninjured", fillcolor="#af81ee"] ;
62 -> 66 ;
67 [label="temperature <= -0.5\ngini = 0.421\nsamples = 1334\nvalue = [286, 77, 971]\nclass = Uninjured", fillcolor="#ad7eee"] ;
61 -> 67 ;
68 [label="gini = 0.375\nsamples = 36\nvalue = [9, 0, 27]\nclass = Uninjured", fillcolor="#ab7bee"] ;
67 -> 68 ;
69 [label="gini = 0.422\nsamples = 1298\nvalue = [277, 77, 944]\nclass = Uninjured", fillcolor="#ad7eee"] ;
67 -> 69 ;
70 [label="temperature <= 1.5\ngini = 0.395\nsamples = 683\nvalue = [132, 38, 513]\nclass = Uninjured", fillcolor="#a876ed"] ;
60 -> 70 ;
71 [label="gini = 0.347\nsamples = 122\nvalue = [22, 4, 96]\nclass = Uninjured", fillcolor="#a26cec"] ;
70 -> 71 ;
72 [label="temperature <= 2.5\ngini = 0.405\nsamples = 561\nvalue = [110, 34, 417]\nclass = Uninjured", fillcolor="#a978ed"] ;
70 -> 72 ;
73 [label="gini = 0.428\nsamples = 209\nvalue = [40, 17, 152]\nclass = Uninjured", fillcolor="#ab7cee"] ;
72 -> 73 ;
74 [label="temperature <= 3.5\ngini = 0.391\nsamples = 352\nvalue = [70, 17, 265]\nclass = Uninjured", fillcolor="#a876ed"] ;
72 -> 74 ;
75 [label="gini = 0.39\nsamples = 153\nvalue = [32, 6, 115]\nclass = Uninjured", fillcolor="#a977ed"] ;
74 -> 75 ;
76 [label="gini = 0.392\nsamples = 199\nvalue = [38, 11, 150]\nclass = Uninjured", fillcolor="#a775ed"] ;
74 -> 76 ;
77 [label="temperature <= 9.5\ngini = 0.417\nsamples = 3895\nvalue = [869, 189, 2837]\nclass = Uninjured", fillcolor="#ad7eee"] ;
59 -> 77 ;
78 [label="temperature <= 8.5\ngini = 0.433\nsamples = 1597\nvalue = [375, 82, 1140]\nclass = Uninjured", fillcolor="#b083ef"] ;
77 -> 78 ;
79 [label="temperature <= 6.5\ngini = 0.428\nsamples = 1426\nvalue = [341, 64, 1021]\nclass = Uninjured", fillcolor="#b083ef"] ;
78 -> 79 ;
80 [label="temperature <= 5.5\ngini = 0.424\nsamples = 931\nvalue = [214, 45, 672]\nclass = Uninjured", fillcolor="#af81ee"] ;
79 -> 80 ;
81 [label="gini = 0.418\nsamples = 712\nvalue = [170, 27, 515]\nclass = Uninjured", fillcolor="#af81ee"] ;
80 -> 81 ;
82 [label="gini = 0.439\nsamples = 219\nvalue = [44, 18, 157]\nclass = Uninjured", fillcolor="#ae7fee"] ;
80 -> 82 ;
83 [label="temperature <= 7.5\ngini = 0.436\nsamples = 495\nvalue = [127, 19, 349]\nclass = Uninjured", fillcolor="#b388ef"] ;
79 -> 83 ;
84 [label="gini = 0.437\nsamples = 171\nvalue = [42, 8, 121]\nclass = Uninjured", fillcolor="#b286ef"] ;
83 -> 84 ;
85 [label="gini = 0.435\nsamples = 324\nvalue = [85, 11, 228]\nclass = Uninjured", fillcolor="#b489ef"] ;
83 -> 85 ;
86 [label="gini = 0.465\nsamples = 171\nvalue = [34, 18, 119]\nclass = Uninjured", fillcolor="#b184ef"] ;
78 -> 86 ;
87 [label="temperature <= 11.5\ngini = 0.406\nsamples = 2298\nvalue = [494, 107, 1697]\nclass = Uninjured", fillcolor="#ab7bee"] ;
77 -> 87 ;
88 [label="temperature <= 10.5\ngini = 0.404\nsamples = 1803\nvalue = [382, 85, 1336]\nclass = Uninjured", fillcolor="#aa7aee"] ;
87 -> 88 ;
89 [label="gini = 0.402\nsamples = 1662\nvalue = [353, 76, 1233]\nclass = Uninjured", fillcolor="#aa7aee"] ;
88 -> 89 ;
90 [label="gini = 0.42\nsamples = 141\nvalue = [29, 9, 103]\nclass = Uninjured", fillcolor="#ac7cee"] ;
88 -> 90 ;
91 [label="gini = 0.415\nsamples = 495\nvalue = [112, 22, 361]\nclass = Uninjured", fillcolor="#ad7eee"] ;
87 -> 91 ;
92 [label="temperature <= 13.5\ngini = 0.43\nsamples = 7601\nvalue = [1727, 416, 5458]\nclass = Uninjured", fillcolor="#af81ee"] ;
36 -> 92 ;
93 [label="gini = 0.477\nsamples = 177\nvalue = [42, 15, 120]\nclass = Uninjured", fillcolor="#b68df0"] ;
92 -> 93 ;
94 [label="temperature <= 15.5\ngini = 0.429\nsamples = 7424\nvalue = [1685, 401, 5338]\nclass = Uninjured", fillcolor="#af81ee"] ;
92 -> 94 ;
95 [label="temperature <= 14.5\ngini = 0.436\nsamples = 1906\nvalue = [445, 105, 1356]\nclass = Uninjured", fillcolor="#b084ef"] ;
94 -> 95 ;
96 [label="gini = 0.42\nsamples = 295\nvalue = [67, 14, 214]\nclass = Uninjured", fillcolor="#ae7fee"] ;
95 -> 96 ;
97 [label="gini = 0.439\nsamples = 1611\nvalue = [378, 91, 1142]\nclass = Uninjured", fillcolor="#b184ef"] ;
95 -> 97 ;
98 [label="temperature <= 18.5\ngini = 0.426\nsamples = 5518\nvalue = [1240, 296, 3982]\nclass = Uninjured", fillcolor="#ae80ee"] ;
94 -> 98 ;
99 [label="temperature <= 17.5\ngini = 0.423\nsamples = 1421\nvalue = [303, 86, 1032]\nclass = Uninjured", fillcolor="#ad7eee"] ;
98 -> 99 ;
100 [label="temperature <= 16.5\ngini = 0.412\nsamples = 604\nvalue = [127, 33, 444]\nclass = Uninjured", fillcolor="#ab7bee"] ;
99 -> 100 ;
101 [label="gini = 0.413\nsamples = 324\nvalue = [68, 18, 238]\nclass = Uninjured", fillcolor="#ab7cee"] ;
100 -> 101 ;
102 [label="gini = 0.411\nsamples = 280\nvalue = [59, 15, 206]\nclass = Uninjured", fillcolor="#ab7bee"] ;
100 -> 102 ;
103 [label="gini = 0.431\nsamples = 817\nvalue = [176, 53, 588]\nclass = Uninjured", fillcolor="#ae80ee"] ;
99 -> 103 ;
104 [label="temperature <= 19.5\ngini = 0.427\nsamples = 4097\nvalue = [937, 210, 2950]\nclass = Uninjured", fillcolor="#af81ee"] ;
98 -> 104 ;
105 [label="gini = 0.416\nsamples = 338\nvalue = [84, 10, 244]\nclass = Uninjured", fillcolor="#b082ef"] ;
104 -> 105 ;
106 [label="temperature <= 20.5\ngini = 0.427\nsamples = 3759\nvalue = [853, 200, 2706]\nclass = Uninjured", fillcolor="#af81ee"] ;
104 -> 106 ;
107 [label="gini = 0.426\nsamples = 3387\nvalue = [773, 174, 2440]\nclass = Uninjured", fillcolor="#af81ee"] ;
106 -> 107 ;
108 [label="gini = 0.438\nsamples = 372\nvalue = [80, 26, 266]\nclass = Uninjured", fillcolor="#af81ee"] ;
106 -> 108 ;
109 [label="temperature <= 24.5\ngini = 0.443\nsamples = 17240\nvalue = [4027, 1043, 12170]\nclass = Uninjured", fillcolor="#b185ef"] ;
1 -> 109 ;
110 [label="temperature <= 23.5\ngini = 0.454\nsamples = 1928\nvalue = [489, 105, 1334]\nclass = Uninjured", fillcolor="#b58bf0"] ;
109 -> 110 ;
111 [label="temperature <= 22.5\ngini = 0.45\nsamples = 1263\nvalue = [313, 70, 880]\nclass = Uninjured", fillcolor="#b489ef"] ;
110 -> 111 ;
112 [label="gini = 0.446\nsamples = 771\nvalue = [200, 34, 537]\nclass = Uninjured", fillcolor="#b58af0"] ;
111 -> 112 ;
113 [label="gini = 0.456\nsamples = 492\nvalue = [113, 36, 343]\nclass = Uninjured", fillcolor="#b387ef"] ;
111 -> 113 ;
114 [label="gini = 0.461\nsamples = 665\nvalue = [176, 35, 454]\nclass = Uninjured", fillcolor="#b78ef0"] ;
110 -> 114 ;
115 [label="temperature <= 26.5\ngini = 0.442\nsamples = 15312\nvalue = [3538, 938, 10836]\nclass = Uninjured", fillcolor="#b184ef"] ;
109 -> 115 ;
116 [label="temperature <= 25.5\ngini = 0.434\nsamples = 3705\nvalue = [827, 227, 2651]\nclass = Uninjured", fillcolor="#af82ef"] ;
115 -> 116 ;
117 [label="gini = 0.44\nsamples = 2923\nvalue = [652, 191, 2080]\nclass = Uninjured", fillcolor="#b082ef"] ;
116 -> 117 ;
118 [label="gini = 0.415\nsamples = 782\nvalue = [175, 36, 571]\nclass = Uninjured", fillcolor="#ad7eee"] ;
116 -> 118 ;
119 [label="temperature <= 29.5\ngini = 0.444\nsamples = 11607\nvalue = [2711, 711, 8185]\nclass = Uninjured", fillcolor="#b185ef"] ;
115 -> 119 ;
120 [label="temperature <= 27.5\ngini = 0.456\nsamples = 3336\nvalue = [816, 208, 2312]\nclass = Uninjured", fillcolor="#b489f0"] ;
119 -> 120 ;
121 [label="gini = 0.453\nsamples = 683\nvalue = [174, 36, 473]\nclass = Uninjured", fillcolor="#b58bf0"] ;
120 -> 121 ;
122 [label="temperature <= 28.5\ngini = 0.457\nsamples = 2653\nvalue = [642, 172, 1839]\nclass = Uninjured", fillcolor="#b489f0"] ;
120 -> 122 ;
123 [label="gini = 0.453\nsamples = 1950\nvalue = [468, 124, 1358]\nclass = Uninjured", fillcolor="#b388ef"] ;
122 -> 123 ;
124 [label="gini = 0.466\nsamples = 703\nvalue = [174, 48, 481]\nclass = Uninjured", fillcolor="#b68cf0"] ;
122 -> 124 ;
125 [label="temperature <= 30.5\ngini = 0.44\nsamples = 8271\nvalue = [1895, 503, 5873]\nclass = Uninjured", fillcolor="#b083ef"] ;
119 -> 125 ;
126 [label="gini = 0.441\nsamples = 5308\nvalue = [1206, 335, 3767]\nclass = Uninjured", fillcolor="#b083ef"] ;
125 -> 126 ;
127 [label="temperature <= 31.5\ngini = 0.438\nsamples = 2963\nvalue = [689, 168, 2106]\nclass = Uninjured", fillcolor="#b084ef"] ;
125 -> 127 ;
128 [label="gini = 0.428\nsamples = 683\nvalue = [157, 35, 491]\nclass = Uninjured", fillcolor="#af81ee"] ;
127 -> 128 ;
129 [label="gini = 0.44\nsamples = 2280\nvalue = [532, 133, 1615]\nclass = Uninjured", fillcolor="#b184ef"] ;
127 -> 129 ;
130 [label="temperature <= 83.5\ngini = 0.463\nsamples = 157815\nvalue = [38730, 10645, 108440]\nclass = Uninjured", fillcolor="#b58bf0"] ;
0 -> 130 [labeldistance=2.5, labelangle=-45, headlabel="False"] ;
131 [label="temperature <= 62.5\ngini = 0.46\nsamples = 135838\nvalue = [32956, 9078, 93804]\nclass = Uninjured", fillcolor="#b48af0"] ;
130 -> 131 ;
132 [label="temperature <= 45.5\ngini = 0.456\nsamples = 75187\nvalue = [18160, 4834, 52193]\nclass = Uninjured", fillcolor="#b489ef"] ;
131 -> 132 ;
133 [label="temperature <= 37.5\ngini = 0.461\nsamples = 31447\nvalue = [7761, 2038, 21648]\nclass = Uninjured", fillcolor="#b58bf0"] ;
132 -> 133 ;
134 [label="temperature <= 35.5\ngini = 0.465\nsamples = 9266\nvalue = [2265, 645, 6356]\nclass = Uninjured", fillcolor="#b58bf0"] ;
133 -> 134 ;
135 [label="temperature <= 33.5\ngini = 0.465\nsamples = 7219\nvalue = [1784, 492, 4943]\nclass = Uninjured", fillcolor="#b68cf0"] ;
134 -> 135 ;
136 [label="gini = 0.45\nsamples = 1034\nvalue = [248, 63, 723]\nclass = Uninjured", fillcolor="#b387ef"] ;
135 -> 136 ;
137 [label="temperature <= 34.5\ngini = 0.468\nsamples = 6185\nvalue = [1536, 429, 4220]\nclass = Uninjured", fillcolor="#b68df0"] ;
135 -> 137 ;
138 [label="gini = 0.466\nsamples = 1548\nvalue = [375, 111, 1062]\nclass = Uninjured", fillcolor="#b58bf0"] ;
137 -> 138 ;
139 [label="gini = 0.469\nsamples = 4637\nvalue = [1161, 318, 3158]\nclass = Uninjured", fillcolor="#b78df0"] ;
137 -> 139 ;
140 [label="temperature <= 36.5\ngini = 0.463\nsamples = 2047\nvalue = [481, 153, 1413]\nclass = Uninjured", fillcolor="#b489f0"] ;
134 -> 140 ;
141 [label="gini = 0.462\nsamples = 1161\nvalue = [274, 85, 802]\nclass = Uninjured", fillcolor="#b489f0"] ;
140 -> 141 ;
142 [label="gini = 0.464\nsamples = 886\nvalue = [207, 68, 611]\nclass = Uninjured", fillcolor="#b489f0"] ;
140 -> 142 ;
143 [label="temperature <= 40.5\ngini = 0.459\nsamples = 22181\nvalue = [5496, 1393, 15292]\nclass = Uninjured", fillcolor="#b58bf0"] ;
133 -> 143 ;
144 [label="temperature <= 39.5\ngini = 0.461\nsamples = 11266\nvalue = [2835, 690, 7741]\nclass = Uninjured", fillcolor="#b68cf0"] ;
143 -> 144 ;
145 [label="temperature <= 38.5\ngini = 0.459\nsamples = 3153\nvalue = [785, 194, 2174]\nclass = Uninjured", fillcolor="#b58bf0"] ;
144 -> 145 ;
146 [label="gini = 0.458\nsamples = 2323\nvalue = [580, 140, 1603]\nclass = Uninjured", fillcolor="#b58bf0"] ;
145 -> 146 ;
147 [label="gini = 0.461\nsamples = 830\nvalue = [205, 54, 571]\nclass = Uninjured", fillcolor="#b58bf0"] ;
145 -> 147 ;
148 [label="gini = 0.462\nsamples = 8113\nvalue = [2050, 496, 5567]\nclass = Uninjured", fillcolor="#b68cf0"] ;
144 -> 148 ;
149 [label="temperature <= 41.5\ngini = 0.458\nsamples = 10915\nvalue = [2661, 703, 7551]\nclass = Uninjured", fillcolor="#b48af0"] ;
143 -> 149 ;
150 [label="gini = 0.477\nsamples = 747\nvalue = [178, 63, 506]\nclass = Uninjured", fillcolor="#b68df0"] ;
149 -> 150 ;
151 [label="temperature <= 43.5\ngini = 0.456\nsamples = 10168\nvalue = [2483, 640, 7045]\nclass = Uninjured", fillcolor="#b489f0"] ;
149 -> 151 ;
152 [label="temperature <= 42.5\ngini = 0.454\nsamples = 2693\nvalue = [639, 177, 1877]\nclass = Uninjured", fillcolor="#b388ef"] ;
151 -> 152 ;
153 [label="gini = 0.45\nsamples = 1784\nvalue = [423, 112, 1249]\nclass = Uninjured", fillcolor="#b387ef"] ;
152 -> 153 ;
154 [label="gini = 0.461\nsamples = 909\nvalue = [216, 65, 628]\nclass = Uninjured", fillcolor="#b489f0"] ;
152 -> 154 ;
155 [label="temperature <= 44.5\ngini = 0.457\nsamples = 7475\nvalue = [1844, 463, 5168]\nclass = Uninjured", fillcolor="#b58af0"] ;
151 -> 155 ;
156 [label="gini = 0.461\nsamples = 809\nvalue = [205, 49, 555]\nclass = Uninjured", fillcolor="#b68cf0"] ;
155 -> 156 ;
157 [label="gini = 0.457\nsamples = 6666\nvalue = [1639, 414, 4613]\nclass = Uninjured", fillcolor="#b48af0"] ;
155 -> 157 ;
158 [label="temperature <= 60.5\ngini = 0.452\nsamples = 43740\nvalue = [10399, 2796, 30545]\nclass = Uninjured", fillcolor="#b387ef"] ;
132 -> 158 ;
159 [label="temperature <= 59.5\ngini = 0.452\nsamples = 41194\nvalue = [9825, 2634, 28735]\nclass = Uninjured", fillcolor="#b388ef"] ;
158 -> 159 ;
160 [label="temperature <= 56.5\ngini = 0.45\nsamples = 30212\nvalue = [7143, 1922, 21147]\nclass = Uninjured", fillcolor="#b387ef"] ;
159 -> 160 ;
161 [label="temperature <= 51.5\ngini = 0.452\nsamples = 26562\nvalue = [6336, 1698, 18528]\nclass = Uninjured", fillcolor="#b388ef"] ;
160 -> 161 ;
162 [label="temperature <= 47.5\ngini = 0.449\nsamples = 15642\nvalue = [3677, 992, 10973]\nclass = Uninjured", fillcolor="#b286ef"] ;
161 -> 162 ;
163 [label="temperature <= 46.5\ngini = 0.462\nsamples = 1908\nvalue = [438, 149, 1321]\nclass = Uninjured", fillcolor="#b388ef"] ;
162 -> 163 ;
164 [label="gini = 0.455\nsamples = 990\nvalue = [224, 74, 692]\nclass = Uninjured", fillcolor="#b286ef"] ;
163 -> 164 ;
165 [label="gini = 0.47\nsamples = 918\nvalue = [214, 75, 629]\nclass = Uninjured", fillcolor="#b58af0"] ;
163 -> 165 ;
166 [label="temperature <= 48.5\ngini = 0.447\nsamples = 13734\nvalue = [3239, 843, 9652]\nclass = Uninjured", fillcolor="#b286ef"] ;
162 -> 166 ;
167 [label="gini = 0.432\nsamples = 2166\nvalue = [493, 121, 1552]\nclass = Uninjured", fillcolor="#af82ef"] ;
166 -> 167 ;
168 [label="temperature <= 49.5\ngini = 0.449\nsamples = 11568\nvalue = [2746, 722, 8100]\nclass = Uninjured", fillcolor="#b387ef"] ;
166 -> 168 ;
169 [label="gini = 0.47\nsamples = 684\nvalue = [164, 53, 467]\nclass = Uninjured", fillcolor="#b68cf0"] ;
168 -> 169 ;
170 [label="temperature <= 50.5\ngini = 0.448\nsamples = 10884\nvalue = [2582, 669, 7633]\nclass = Uninjured", fillcolor="#b287ef"] ;
168 -> 170 ;
171 [label="gini = 0.449\nsamples = 10104\nvalue = [2402, 626, 7076]\nclass = Uninjured", fillcolor="#b387ef"] ;
170 -> 171 ;
172 [label="gini = 0.434\nsamples = 780\nvalue = [180, 43, 557]\nclass = Uninjured", fillcolor="#b083ef"] ;
170 -> 172 ;
173 [label="temperature <= 52.5\ngini = 0.458\nsamples = 10920\nvalue = [2659, 706, 7555]\nclass = Uninjured", fillcolor="#b48af0"] ;
161 -> 173 ;
174 [label="gini = 0.465\nsamples = 1695\nvalue = [418, 115, 1162]\nclass = Uninjured", fillcolor="#b68cf0"] ;
173 -> 174 ;
175 [label="temperature <= 55.5\ngini = 0.457\nsamples = 9225\nvalue = [2241, 591, 6393]\nclass = Uninjured", fillcolor="#b489f0"] ;
173 -> 175 ;
176 [label="temperature <= 53.5\ngini = 0.457\nsamples = 8023\nvalue = [1944, 518, 5561]\nclass = Uninjured", fillcolor="#b489f0"] ;
175 -> 176 ;
177 [label="gini = 0.46\nsamples = 790\nvalue = [193, 52, 545]\nclass = Uninjured", fillcolor="#b58af0"] ;
176 -> 177 ;
178 [label="temperature <= 54.5\ngini = 0.456\nsamples = 7233\nvalue = [1751, 466, 5016]\nclass = Uninjured", fillcolor="#b489f0"] ;
176 -> 178 ;
179 [label="gini = 0.453\nsamples = 1062\nvalue = [253, 69, 740]\nclass = Uninjured", fillcolor="#b388ef"] ;
178 -> 179 ;
180 [label="gini = 0.457\nsamples = 6171\nvalue = [1498, 397, 4276]\nclass = Uninjured", fillcolor="#b489f0"] ;
178 -> 180 ;
181 [label="gini = 0.456\nsamples = 1202\nvalue = [297, 73, 832]\nclass = Uninjured", fillcolor="#b58af0"] ;
175 -> 181 ;
182 [label="temperature <= 57.5\ngini = 0.432\nsamples = 3650\nvalue = [807, 224, 2619]\nclass = Uninjured", fillcolor="#af81ee"] ;
160 -> 182 ;
183 [label="gini = 0.44\nsamples = 867\nvalue = [180, 67, 620]\nclass = Uninjured", fillcolor="#ae80ee"] ;
182 -> 183 ;
184 [label="temperature <= 58.5\ngini = 0.43\nsamples = 2783\nvalue = [627, 157, 1999]\nclass = Uninjured", fillcolor="#af81ee"] ;
182 -> 184 ;
185 [label="gini = 0.434\nsamples = 2060\nvalue = [464, 123, 1473]\nclass = Uninjured", fillcolor="#af82ef"] ;
184 -> 185 ;
186 [label="gini = 0.418\nsamples = 723\nvalue = [163, 34, 526]\nclass = Uninjured", fillcolor="#ad7fee"] ;
184 -> 186 ;
187 [label="gini = 0.459\nsamples = 10982\nvalue = [2682, 712, 7588]\nclass = Uninjured", fillcolor="#b58af0"] ;
159 -> 187 ;
188 [label="temperature <= 61.5\ngini = 0.44\nsamples = 2546\nvalue = [574, 162, 1810]\nclass = Uninjured", fillcolor="#b083ef"] ;
158 -> 188 ;
189 [label="gini = 0.452\nsamples = 758\nvalue = [170, 56, 532]\nclass = Uninjured", fillcolor="#b185ef"] ;
188 -> 189 ;
190 [label="gini = 0.435\nsamples = 1788\nvalue = [404, 106, 1278]\nclass = Uninjured", fillcolor="#af82ef"] ;
188 -> 190 ;
191 [label="temperature <= 69.5\ngini = 0.465\nsamples = 60651\nvalue = [14796, 4244, 41611]\nclass = Uninjured", fillcolor="#b58bf0"] ;
131 -> 191 ;
192 [label="temperature <= 66.5\ngini = 0.469\nsamples = 16301\nvalue = [4128, 1088, 11085]\nclass = Uninjured", fillcolor="#b78ef0"] ;
191 -> 192 ;
193 [label="temperature <= 65.5\ngini = 0.473\nsamples = 11254\nvalue = [2860, 782, 7612]\nclass = Uninjured", fillcolor="#b88ff0"] ;
192 -> 193 ;
194 [label="temperature <= 63.5\ngini = 0.471\nsamples = 10514\nvalue = [2663, 722, 7129]\nclass = Uninjured", fillcolor="#b78ef0"] ;
193 -> 194 ;
195 [label="gini = 0.48\nsamples = 946\nvalue = [258, 59, 629]\nclass = Uninjured", fillcolor="#bb94f1"] ;
194 -> 195 ;
196 [label="temperature <= 64.5\ngini = 0.471\nsamples = 9568\nvalue = [2405, 663, 6500]\nclass = Uninjured", fillcolor="#b78ef0"] ;
194 -> 196 ;
197 [label="gini = 0.472\nsamples = 1018\nvalue = [260, 69, 689]\nclass = Uninjured", fillcolor="#b88ff0"] ;
196 -> 197 ;
198 [label="gini = 0.47\nsamples = 8550\nvalue = [2145, 594, 5811]\nclass = Uninjured", fillcolor="#b78ef0"] ;
196 -> 198 ;
199 [label="gini = 0.497\nsamples = 740\nvalue = [197, 60, 483]\nclass = Uninjured", fillcolor="#bd97f1"] ;
193 -> 199 ;
200 [label="temperature <= 67.5\ngini = 0.46\nsamples = 5047\nvalue = [1268, 306, 3473]\nclass = Uninjured", fillcolor="#b58bf0"] ;
192 -> 200 ;
201 [label="gini = 0.456\nsamples = 880\nvalue = [228, 46, 606]\nclass = Uninjured", fillcolor="#b68cf0"] ;
200 -> 201 ;
202 [label="temperature <= 68.5\ngini = 0.46\nsamples = 4167\nvalue = [1040, 260, 2867]\nclass = Uninjured", fillcolor="#b58bf0"] ;
200 -> 202 ;
203 [label="gini = 0.46\nsamples = 3384\nvalue = [842, 212, 2330]\nclass = Uninjured", fillcolor="#b58bf0"] ;
202 -> 203 ;
204 [label="gini = 0.462\nsamples = 783\nvalue = [198, 48, 537]\nclass = Uninjured", fillcolor="#b68cf0"] ;
202 -> 204 ;
205 [label="temperature <= 72.5\ngini = 0.463\nsamples = 44350\nvalue = [10668, 3156, 30526]\nclass = Uninjured", fillcolor="#b58af0"] ;
191 -> 205 ;
206 [label="temperature <= 71.5\ngini = 0.455\nsamples = 14872\nvalue = [3543, 979, 10350]\nclass = Uninjured", fillcolor="#b388ef"] ;
205 -> 206 ;
207 [label="temperature <= 70.5\ngini = 0.458\nsamples = 11718\nvalue = [2809, 788, 8121]\nclass = Uninjured", fillcolor="#b489ef"] ;
206 -> 207 ;
208 [label="gini = 0.456\nsamples = 10886\nvalue = [2602, 720, 7564]\nclass = Uninjured", fillcolor="#b488ef"] ;
207 -> 208 ;
209 [label="gini = 0.483\nsamples = 832\nvalue = [207, 68, 557]\nclass = Uninjured", fillcolor="#b890f0"] ;
207 -> 209 ;
210 [label="gini = 0.443\nsamples = 3154\nvalue = [734, 191, 2229]\nclass = Uninjured", fillcolor="#b185ef"] ;
206 -> 210 ;
211 [label="temperature <= 78.5\ngini = 0.468\nsamples = 29478\nvalue = [7125, 2177, 20176]\nclass = Uninjured", fillcolor="#b58bf0"] ;
205 -> 211 ;
212 [label="temperature <= 74.5\ngini = 0.464\nsamples = 16170\nvalue = [3893, 1161, 11116]\nclass = Uninjured", fillcolor="#b58bf0"] ;
211 -> 212 ;
213 [label="temperature <= 73.5\ngini = 0.474\nsamples = 2509\nvalue = [623, 186, 1700]\nclass = Uninjured", fillcolor="#b78ef0"] ;
212 -> 213 ;
214 [label="gini = 0.464\nsamples = 1177\nvalue = [280, 87, 810]\nclass = Uninjured", fillcolor="#b58af0"] ;
213 -> 214 ;
215 [label="gini = 0.482\nsamples = 1332\nvalue = [343, 99, 890]\nclass = Uninjured", fillcolor="#b991f1"] ;
213 -> 215 ;
216 [label="temperature <= 75.5\ngini = 0.463\nsamples = 13661\nvalue = [3270, 975, 9416]\nclass = Uninjured", fillcolor="#b48af0"] ;
212 -> 216 ;
217 [label="gini = 0.464\nsamples = 8838\nvalue = [2132, 626, 6080]\nclass = Uninjured", fillcolor="#b58af0"] ;
216 -> 217 ;
218 [label="temperature <= 76.5\ngini = 0.461\nsamples = 4823\nvalue = [1138, 349, 3336]\nclass = Uninjured", fillcolor="#b489ef"] ;
216 -> 218 ;
219 [label="gini = 0.447\nsamples = 1225\nvalue = [275, 86, 864]\nclass = Uninjured", fillcolor="#b184ef"] ;
218 -> 219 ;
220 [label="temperature <= 77.5\ngini = 0.465\nsamples = 3598\nvalue = [863, 263, 2472]\nclass = Uninjured", fillcolor="#b58bf0"] ;
218 -> 220 ;
221 [label="gini = 0.478\nsamples = 670\nvalue = [161, 56, 453]\nclass = Uninjured", fillcolor="#b78df0"] ;
220 -> 221 ;
222 [label="gini = 0.462\nsamples = 2928\nvalue = [702, 207, 2019]\nclass = Uninjured", fillcolor="#b48af0"] ;
220 -> 222 ;
223 [label="temperature <= 79.5\ngini = 0.472\nsamples = 13308\nvalue = [3232, 1016, 9060]\nclass = Uninjured", fillcolor="#b68cf0"] ;
211 -> 223 ;
224 [label="gini = 0.504\nsamples = 803\nvalue = [226, 62, 515]\nclass = Uninjured", fillcolor="#c09cf2"] ;
223 -> 224 ;
225 [label="temperature <= 80.5\ngini = 0.469\nsamples = 12505\nvalue = [3006, 954, 8545]\nclass = Uninjured", fillcolor="#b68cf0"] ;
223 -> 225 ;
226 [label="gini = 0.468\nsamples = 9212\nvalue = [2201, 703, 6308]\nclass = Uninjured", fillcolor="#b58bf0"] ;
225 -> 226 ;
227 [label="temperature <= 82.5\ngini = 0.473\nsamples = 3293\nvalue = [805, 251, 2237]\nclass = Uninjured", fillcolor="#b68df0"] ;
225 -> 227 ;
228 [label="temperature <= 81.5\ngini = 0.474\nsamples = 2441\nvalue = [602, 185, 1654]\nclass = Uninjured", fillcolor="#b78ef0"] ;
227 -> 228 ;
229 [label="gini = 0.475\nsamples = 694\nvalue = [167, 56, 471]\nclass = Uninjured", fillcolor="#b68df0"] ;
228 -> 229 ;
230 [label="gini = 0.474\nsamples = 1747\nvalue = [435, 129, 1183]\nclass = Uninjured", fillcolor="#b78ef0"] ;
228 -> 230 ;
231 [label="gini = 0.469\nsamples = 852\nvalue = [203, 66, 583]\nclass = Uninjured", fillcolor="#b58bf0"] ;
227 -> 231 ;
232 [label="temperature <= 109.5\ngini = 0.482\nsamples = 21977\nvalue = [5774, 1567, 14636]\nclass = Uninjured", fillcolor="#ba93f1"] ;
130 -> 232 ;
233 [label="temperature <= 98.5\ngini = 0.483\nsamples = 21909\nvalue = [5765, 1565, 14579]\nclass = Uninjured", fillcolor="#ba93f1"] ;
232 -> 233 ;
234 [label="temperature <= 87.5\ngini = 0.481\nsamples = 20965\nvalue = [5510, 1472, 13983]\nclass = Uninjured", fillcolor="#ba92f1"] ;
233 -> 234 ;
235 [label="temperature <= 86.5\ngini = 0.476\nsamples = 8693\nvalue = [2238, 604, 5851]\nclass = Uninjured", fillcolor="#b890f0"] ;
234 -> 235 ;
236 [label="temperature <= 85.5\ngini = 0.475\nsamples = 7941\nvalue = [2047, 543, 5351]\nclass = Uninjured", fillcolor="#b890f0"] ;
235 -> 236 ;
237 [label="temperature <= 84.5\ngini = 0.476\nsamples = 7057\nvalue = [1823, 484, 4750]\nclass = Uninjured", fillcolor="#b990f0"] ;
236 -> 237 ;
238 [label="gini = 0.472\nsamples = 971\nvalue = [251, 64, 656]\nclass = Uninjured", fillcolor="#b890f0"] ;
237 -> 238 ;
239 [label="gini = 0.476\nsamples = 6086\nvalue = [1572, 420, 4094]\nclass = Uninjured", fillcolor="#b990f0"] ;
237 -> 239 ;
240 [label="gini = 0.469\nsamples = 884\nvalue = [224, 59, 601]\nclass = Uninjured", fillcolor="#b78ef0"] ;
236 -> 240 ;
241 [label="gini = 0.487\nsamples = 752\nvalue = [191, 61, 500]\nclass = Uninjured", fillcolor="#ba92f1"] ;
235 -> 241 ;
242 [label="temperature <= 91.5\ngini = 0.485\nsamples = 12272\nvalue = [3272, 868, 8132]\nclass = Uninjured", fillcolor="#bb94f1"] ;
234 -> 242 ;
243 [label="temperature <= 90.5\ngini = 0.485\nsamples = 7544\nvalue = [2058, 505, 4981]\nclass = Uninjured", fillcolor="#bc96f1"] ;
242 -> 243 ;
244 [label="temperature <= 89.5\ngini = 0.484\nsamples = 7080\nvalue = [1922, 475, 4683]\nclass = Uninjured", fillcolor="#bc95f1"] ;
243 -> 244 ;
245 [label="temperature <= 88.5\ngini = 0.491\nsamples = 2111\nvalue = [590, 142, 1379]\nclass = Uninjured", fillcolor="#be98f2"] ;
244 -> 245 ;
246 [label="gini = 0.482\nsamples = 1326\nvalue = [373, 78, 875]\nclass = Uninjured", fillcolor="#bd97f1"] ;
245 -> 246 ;
247 [label="gini = 0.505\nsamples = 785\nvalue = [217, 64, 504]\nclass = Uninjured", fillcolor="#bf9bf2"] ;
245 -> 247 ;
248 [label="gini = 0.482\nsamples = 4969\nvalue = [1332, 333, 3304]\nclass = Uninjured", fillcolor="#bb94f1"] ;
244 -> 248 ;
249 [label="gini = 0.497\nsamples = 464\nvalue = [136, 30, 298]\nclass = Uninjured", fillcolor="#c19df2"] ;
243 -> 249 ;
250 [label="temperature <= 95.5\ngini = 0.484\nsamples = 4728\nvalue = [1214, 363, 3151]\nclass = Uninjured", fillcolor="#ba92f1"] ;
242 -> 250 ;
251 [label="temperature <= 94.5\ngini = 0.483\nsamples = 3623\nvalue = [912, 288, 2423]\nclass = Uninjured", fillcolor="#b991f1"] ;
250 -> 251 ;
252 [label="temperature <= 93.5\ngini = 0.487\nsamples = 1899\nvalue = [491, 149, 1259]\nclass = Uninjured", fillcolor="#ba93f1"] ;
251 -> 252 ;
253 [label="temperature <= 92.5\ngini = 0.477\nsamples = 1467\nvalue = [374, 106, 987]\nclass = Uninjured", fillcolor="#b890f0"] ;
252 -> 253 ;
254 [label="gini = 0.47\nsamples = 936\nvalue = [235, 65, 636]\nclass = Uninjured", fillcolor="#b78ef0"] ;
253 -> 254 ;
255 [label="gini = 0.489\nsamples = 531\nvalue = [139, 41, 351]\nclass = Uninjured", fillcolor="#bb94f1"] ;
253 -> 255 ;
256 [label="gini = 0.52\nsamples = 432\nvalue = [117, 43, 272]\nclass = Uninjured", fillcolor="#c19ef2"] ;
252 -> 256 ;
257 [label="gini = 0.478\nsamples = 1724\nvalue = [421, 139, 1164]\nclass = Uninjured", fillcolor="#b78ef0"] ;
251 -> 257 ;
258 [label="temperature <= 96.5\ngini = 0.487\nsamples = 1105\nvalue = [302, 75, 728]\nclass = Uninjured", fillcolor="#bc96f1"] ;
250 -> 258 ;
259 [label="gini = 0.505\nsamples = 347\nvalue = [98, 27, 222]\nclass = Uninjured", fillcolor="#c09cf2"] ;
258 -> 259 ;
260 [label="temperature <= 97.5\ngini = 0.478\nsamples = 758\nvalue = [204, 48, 506]\nclass = Uninjured", fillcolor="#ba93f1"] ;
258 -> 260 ;
261 [label="gini = 0.472\nsamples = 245\nvalue = [65, 15, 165]\nclass = Uninjured", fillcolor="#b991f1"] ;
260 -> 261 ;
262 [label="gini = 0.481\nsamples = 513\nvalue = [139, 33, 341]\nclass = Uninjured", fillcolor="#bb94f1"] ;
260 -> 262 ;
263 [label="temperature <= 108.5\ngini = 0.519\nsamples = 944\nvalue = [255, 93, 596]\nclass = Uninjured", fillcolor="#c19df2"] ;
233 -> 263 ;
264 [label="temperature <= 107.5\ngini = 0.517\nsamples = 940\nvalue = [253, 92, 595]\nclass = Uninjured", fillcolor="#c09cf2"] ;
263 -> 264 ;
265 [label="temperature <= 101.5\ngini = 0.519\nsamples = 932\nvalue = [253, 91, 588]\nclass = Uninjured", fillcolor="#c19df2"] ;
264 -> 265 ;
266 [label="temperature <= 100.5\ngini = 0.514\nsamples = 690\nvalue = [192, 61, 437]\nclass = Uninjured", fillcolor="#c19ef2"] ;
265 -> 266 ;
267 [label="temperature <= 99.5\ngini = 0.514\nsamples = 592\nvalue = [158, 57, 377]\nclass = Uninjured", fillcolor="#bf9bf2"] ;
266 -> 267 ;
268 [label="gini = 0.516\nsamples = 158\nvalue = [40, 17, 101]\nclass = Uninjured", fillcolor="#be99f2"] ;
267 -> 268 ;
269 [label="gini = 0.513\nsamples = 434\nvalue = [118, 40, 276]\nclass = Uninjured", fillcolor="#c09cf2"] ;
267 -> 269 ;
270 [label="gini = 0.503\nsamples = 98\nvalue = [34, 4, 60]\nclass = Uninjured", fillcolor="#ccaff4"] ;
266 -> 270 ;
271 [label="temperature <= 106.5\ngini = 0.532\nsamples = 242\nvalue = [61, 30, 151]\nclass = Uninjured", fillcolor="#c09df2"] ;
265 -> 271 ;
272 [label="temperature <= 105.5\ngini = 0.532\nsamples = 232\nvalue = [57, 30, 145]\nclass = Uninjured", fillcolor="#c09bf2"] ;
271 -> 272 ;
273 [label="temperature <= 103.5\ngini = 0.528\nsamples = 221\nvalue = [55, 27, 139]\nclass = Uninjured", fillcolor="#bf9bf2"] ;
272 -> 273 ;
274 [label="temperature <= 102.5\ngini = 0.534\nsamples = 126\nvalue = [29, 18, 79]\nclass = Uninjured", fillcolor="#be99f2"] ;
273 -> 274 ;
275 [label="gini = 0.54\nsamples = 91\nvalue = [23, 12, 56]\nclass = Uninjured", fillcolor="#c29ff2"] ;
274 -> 275 ;
276 [label="gini = 0.509\nsamples = 35\nvalue = [6, 6, 23]\nclass = Uninjured", fillcolor="#b58bf0"] ;
274 -> 276 ;
277 [label="temperature <= 104.5\ngini = 0.517\nsamples = 95\nvalue = [26, 9, 60]\nclass = Uninjured", fillcolor="#c19df2"] ;
273 -> 277 ;
278 [label="gini = 0.469\nsamples = 34\nvalue = [9, 2, 23]\nclass = Uninjured", fillcolor="#b890f0"] ;
277 -> 278 ;
279 [label="gini = 0.541\nsamples = 61\nvalue = [17, 7, 37]\nclass = Uninjured", fillcolor="#c6a5f3"] ;
277 -> 279 ;
280 [label="gini = 0.595\nsamples = 11\nvalue = [2, 3, 6]\nclass = Uninjured", fillcolor="#d0b5f5"] ;
272 -> 280 ;
281 [label="gini = 0.48\nsamples = 10\nvalue = [4, 0, 6]\nclass = Uninjured", fillcolor="#d5bdf6"] ;
271 -> 281 ;
282 [label="gini = 0.219\nsamples = 8\nvalue = [0, 1, 7]\nclass = Uninjured", fillcolor="#9355e9"] ;
264 -> 282 ;
283 [label="gini = 0.625\nsamples = 4\nvalue = [2, 1, 1]\nclass = Injured", fillcolor="#f6d5bd"] ;
263 -> 283 ;
284 [label="temperature <= 472.5\ngini = 0.279\nsamples = 68\nvalue = [9, 2, 57]\nclass = Uninjured", fillcolor="#985eea"] ;
232 -> 284 ;
285 [label="temperature <= 112.5\ngini = 0.222\nsamples = 57\nvalue = [5, 2, 50]\nclass = Uninjured", fillcolor="#9254e8"] ;
284 -> 285 ;
286 [label="temperature <= 111.5\ngini = 0.353\nsamples = 33\nvalue = [5, 2, 26]\nclass = Uninjured", fillcolor="#a06aec"] ;
285 -> 286 ;
287 [label="temperature <= 110.5\ngini = 0.329\nsamples = 31\nvalue = [4, 2, 25]\nclass = Uninjured", fillcolor="#9d65eb"] ;
286 -> 287 ;
288 [label="gini = 0.347\nsamples = 29\nvalue = [4, 2, 23]\nclass = Uninjured", fillcolor="#9f69eb"] ;
287 -> 288 ;
289 [label="gini = 0.0\nsamples = 2\nvalue = [0, 0, 2]\nclass = Uninjured", fillcolor="#8139e5"] ;
287 -> 289 ;
290 [label="gini = 0.5\nsamples = 2\nvalue = [1, 0, 1]\nclass = Injured", fillcolor="#ffffff"] ;
286 -> 290 ;
291 [label="gini = 0.0\nsamples = 24\nvalue = [0, 0, 24]\nclass = Uninjured", fillcolor="#8139e5"] ;
285 -> 291 ;
292 [label="temperature <= 726.0\ngini = 0.463\nsamples = 11\nvalue = [4, 0, 7]\nclass = Uninjured", fillcolor="#c9aaf4"] ;
284 -> 292 ;
293 [label="temperature <= 580.5\ngini = 0.49\nsamples = 7\nvalue = [4, 0, 3]\nclass = Injured", fillcolor="#f8e0ce"] ;
292 -> 293 ;
294 [label="temperature <= 484.0\ngini = 0.375\nsamples = 4\nvalue = [1, 0, 3]\nclass = Uninjured", fillcolor="#ab7bee"] ;
293 -> 294 ;
295 [label="gini = 0.0\nsamples = 1\nvalue = [1, 0, 0]\nclass = Injured", fillcolor="#e58139"] ;
294 -> 295 ;
296 [label="gini = 0.0\nsamples = 3\nvalue = [0, 0, 3]\nclass = Uninjured", fillcolor="#8139e5"] ;
294 -> 296 ;
297 [label="gini = 0.0\nsamples = 3\nvalue = [3, 0, 0]\nclass = Injured", fillcolor="#e58139"] ;
293 -> 297 ;
298 [label="gini = 0.0\nsamples = 4\nvalue = [0, 0, 4]\nclass = Uninjured", fillcolor="#8139e5"] ;
292 -> 298 ;
}